<?xml version="1.0"?>
<opencv_storage>
<cascade>
  <stageType>BOOST</stageType>
  <featureType>HAAR</featureType>
  <height>20</height>
  <width>20</width>
  <stageParams>
    <boostType>GAB</boostType>
    <minHitRate>9.9500000476837158e-01</minHitRate>
    <maxFalseAlarm>5.0000000000000000e-01</maxFalseAlarm>
    <weightTrimRate>9.4999999999999996e-01</weightTrimRate>
    <maxDepth>1</maxDepth>
    <maxWeakCount>100</maxWeakCount></stageParams>
  <featureParams>
    <maxCatCount>0</maxCatCount>
    <featSize>1</featSize>
    <mode>BASIC</mode></featureParams>
  <stageNum>8</stageNum>
  <stages>
    <!-- stage 0 -->
    <_>
      <maxWeakCount>2</maxWeakCount>
      <stageThreshold>-1.5661945939064026e-01</stageThreshold>
      <weakClassifiers>
        <_>
          <internalNodes>
            0 -1 3 7.5615838170051575e-02</internalNodes>
          <leafValues>
            -9.0801888704299927e-01 9.0172785520553589e-01</leafValues></_>
        <_>
          <internalNodes>
            0 -1 27 1.2822071090340614e-02</internalNodes>
          <leafValues>
            -9.3362164497375488e-01 7.5139939785003662e-01</leafValues></_></weakClassifiers></_>
    <!-- stage 1 -->
    <_>
      <maxWeakCount>3</maxWeakCount>
      <stageThreshold>-8.3839344978332520e-01</stageThreshold>
      <weakClassifiers>
        <_>
          <internalNodes>
            0 -1 8 -4.9344163388013840e-02</internalNodes>
          <leafValues>
            7.3294347524642944e-01 -9.3209874629974365e-01</leafValues></_>
        <_>
          <internalNodes>
            0 -1 25 -2.6281210593879223e-03</internalNodes>
          <leafValues>
            6.1378020048141479e-01 -8.7560236454010010e-01</leafValues></_>
        <_>
          <internalNodes>
            0 -1 4 1.0345860570669174e-01</internalNodes>
          <leafValues>
            -6.9573456048965454e-01 6.9035625457763672e-01</leafValues></_></weakClassifiers></_>
    <!-- stage 2 -->
    <_>
      <maxWeakCount>4</maxWeakCount>
      <stageThreshold>-5.8486229181289673e-01</stageThreshold>
      <weakClassifiers>
        <_>
          <internalNodes>
            0 -1 24 -1.2220147997140884e-02</internalNodes>
          <leafValues>
            7.4007934331893921e-01 -8.6549705266952515e-01</leafValues></_>
        <_>
          <internalNodes>
            0 -1 31 -3.4415133297443390e-02</internalNodes>
          <leafValues>
            6.2649780511856079e-01 -6.2978774309158325e-01</leafValues></_>
        <_>
          <internalNodes>
            0 -1 5 1.4593364670872688e-02</internalNodes>
          <leafValues>
            -7.4737381935119629e-01 5.3443139791488647e-01</leafValues></_>
        <_>
          <internalNodes>
            0 -1 23 -3.3405539579689503e-03</internalNodes>
          <leafValues>
            -9.3562620878219604e-01 3.7599116563796997e-01</leafValues></_></weakClassifiers></_>
    <!-- stage 3 -->
    <_>
      <maxWeakCount>4</maxWeakCount>
      <stageThreshold>-6.6006153821945190e-01</stageThreshold>
      <weakClassifiers>
        <_>
          <internalNodes>
            0 -1 26 4.7166664153337479e-02</internalNodes>
          <leafValues>
            -7.7645307779312134e-01 7.0034497976303101e-01</leafValues></_>
        <_>
          <internalNodes>
            0 -1 2 1.4550553262233734e-01</internalNodes>
          <leafValues>
            -6.4935058355331421e-01 5.3300505876541138e-01</leafValues></_>
        <_>
          <internalNodes>
            0 -1 7 9.7110606729984283e-03</internalNodes>
          <leafValues>
            -9.3393915891647339e-01 3.7079909443855286e-01</leafValues></_>
        <_>
          <internalNodes>
            0 -1 29 9.6590658649802208e-03</internalNodes>
          <leafValues>
            -6.9378656148910522e-01 3.9494299888610840e-01</leafValues></_></weakClassifiers></_>
    <!-- stage 4 -->
    <_>
      <maxWeakCount>4</maxWeakCount>
      <stageThreshold>-4.5611137151718140e-01</stageThreshold>
      <weakClassifiers>
        <_>
          <internalNodes>
            0 -1 27 1.1938709765672684e-02</internalNodes>
          <leafValues>
            -8.8495576381683350e-01 5.7829183340072632e-01</leafValues></_>
        <_>
          <internalNodes>
            0 -1 9 -4.3598017655313015e-03</internalNodes>
          <leafValues>
            3.6214929819107056e-01 -8.3329230546951294e-01</leafValues></_>
        <_>
          <internalNodes>
            0 -1 11 6.2041948549449444e-03</internalNodes>
          <leafValues>
            -5.1753312349319458e-01 5.9717196226119995e-01</leafValues></_>
        <_>
          <internalNodes>
            0 -1 30 -8.3204120397567749e-02</internalNodes>
          <leafValues>
            5.1562303304672241e-01 -5.3047686815261841e-01</leafValues></_></weakClassifiers></_>
    <!-- stage 5 -->
    <_>
      <maxWeakCount>5</maxWeakCount>
      <stageThreshold>-4.7186234593391418e-01</stageThreshold>
      <weakClassifiers>
        <_>
          <internalNodes>
            0 -1 0 6.6915437579154968e-02</internalNodes>
          <leafValues>
            -5.3802007436752319e-01 6.3654518127441406e-01</leafValues></_>
        <_>
          <internalNodes>
            0 -1 15 -2.9719654470682144e-02</internalNodes>
          <leafValues>
            3.4620639681816101e-01 -8.8260316848754883e-01</leafValues></_>
        <_>
          <internalNodes>
            0 -1 12 -2.4679114576429129e-03</internalNodes>
          <leafValues>
            2.5036782026290894e-01 -8.8630127906799316e-01</leafValues></_>
        <_>
          <internalNodes>
            0 -1 6 -4.4977813959121704e-03</internalNodes>
          <leafValues>
            4.3012669682502747e-01 -5.5778455734252930e-01</leafValues></_>
        <_>
          <internalNodes>
            0 -1 13 -1.5433344990015030e-02</internalNodes>
          <leafValues>
            -8.6268264055252075e-01 2.6826637983322144e-01</leafValues></_></weakClassifiers></_>
    <!-- stage 6 -->
    <_>
      <maxWeakCount>6</maxWeakCount>
      <stageThreshold>-8.9375573396682739e-01</stageThreshold>
      <weakClassifiers>
        <_>
          <internalNodes>
            0 -1 10 -3.9878925308585167e-03</internalNodes>
          <leafValues>
            5.8015620708465576e-01 -6.9407266378402710e-01</leafValues></_>
        <_>
          <internalNodes>
            0 -1 28 1.8089680001139641e-02</internalNodes>
          <leafValues>
            -6.6994029283523560e-01 4.1274890303611755e-01</leafValues></_>
        <_>
          <internalNodes>
            0 -1 33 -2.3713979870080948e-02</internalNodes>
          <leafValues>
            3.8824379444122314e-01 -6.4932435750961304e-01</leafValues></_>
        <_>
          <internalNodes>
            0 -1 16 -8.7359664030373096e-04</internalNodes>
          <leafValues>
            2.1688471734523773e-01 -8.7210083007812500e-01</leafValues></_>
        <_>
          <internalNodes>
            0 -1 20 -1.0070251300930977e-02</internalNodes>
          <leafValues>
            -8.9500844478607178e-01 2.8454291820526123e-01</leafValues></_>
        <_>
          <internalNodes>
            0 -1 18 7.3184035718441010e-03</internalNodes>
          <leafValues>
            -4.6453529596328735e-01 5.2367639541625977e-01</leafValues></_></weakClassifiers></_>
    <!-- stage 7 -->
    <_>
      <maxWeakCount>8</maxWeakCount>
      <stageThreshold>-6.5056240558624268e-01</stageThreshold>
      <weakClassifiers>
        <_>
          <internalNodes>
            0 -1 17 -9.8407734185457230e-03</internalNodes>
          <leafValues>
            5.7914340496063232e-01 -6.2318837642669678e-01</leafValues></_>
        <_>
          <internalNodes>
            0 -1 1 9.1315597295761108e-02</internalNodes>
          <leafValues>
            -4.1005212068557739e-01 5.5503422021865845e-01</leafValues></_>
        <_>
          <internalNodes>
            0 -1 32 -7.2405068203806877e-04</internalNodes>
          <leafValues>
            3.0137184262275696e-01 -7.6152300834655762e-01</leafValues></_>
        <_>
          <internalNodes>
            0 -1 21 7.3262332007288933e-03</internalNodes>
          <leafValues>
            1.7225880920886993e-01 -9.6693247556686401e-01</leafValues></_>
        <_>
          <internalNodes>
            0 -1 22 -2.3728728294372559e-02</internalNodes>
          <leafValues>
            -9.2690825462341309e-01 1.9523829221725464e-01</leafValues></_>
        <_>
          <internalNodes>
            0 -1 34 -6.2664821743965149e-03</internalNodes>
          <leafValues>
            4.6104273200035095e-01 -4.3777450919151306e-01</leafValues></_>
        <_>
          <internalNodes>
            0 -1 19 -3.4776017069816589e-02</internalNodes>
          <leafValues>
            6.0861474275588989e-01 -3.2662037014961243e-01</leafValues></_>
        <_>
          <internalNodes>
            0 -1 14 -7.5308158993721008e-02</internalNodes>
          <leafValues>
            8.1078940629959106e-01 -3.2280465960502625e-01</leafValues></_></weakClassifiers></_></stages>
  <features>
    <_>
      <rects>
        <_>
          0 3 6 13 -1.</_>
        <_>
          3 3 3 13 2.</_></rects>
      <tilted>0</tilted></_>
    <_>
      <rects>
        <_>
          0 5 6 8 -1.</_>
        <_>
          3 5 3 8 2.</_></rects>
      <tilted>0</tilted></_>
    <_>
      <rects>
        <_>
          0 5 9 10 -1.</_>
        <_>
          3 5 3 10 3.</_></rects>
      <tilted>0</tilted></_>
    <_>
      <rects>
        <_>
          0 6 9 8 -1.</_>
        <_>
          3 6 3 8 3.</_></rects>
      <tilted>0</tilted></_>
    <_>
      <rects>
        <_>
          0 7 9 6 -1.</_>
        <_>
          3 7 3 6 3.</_></rects>
      <tilted>0</tilted></_>
    <_>
      <rects>
        <_>
          1 9 6 2 -1.</_>
        <_>
          3 9 2 2 3.</_></rects>
      <tilted>0</tilted></_>
    <_>
      <rects>
        <_>
          1 18 16 2 -1.</_>
        <_>
          1 19 16 1 2.</_></rects>
      <tilted>0</tilted></_>
    <_>
      <rects>
        <_>
          4 4 9 9 -1.</_>
        <_>
          4 7 9 3 3.</_></rects>
      <tilted>0</tilted></_>
    <_>
      <rects>
        <_>
          4 5 8 9 -1.</_>
        <_>
          8 5 4 9 2.</_></rects>
      <tilted>0</tilted></_>
    <_>
      <rects>
        <_>
          4 7 6 4 -1.</_>
        <_>
          6 7 2 4 3.</_></rects>
      <tilted>0</tilted></_>
    <_>
      <rects>
        <_>
          4 12 9 1 -1.</_>
        <_>
          7 12 3 1 3.</_></rects>
      <tilted>0</tilted></_>
    <_>
      <rects>
        <_>
          5 0 9 2 -1.</_>
        <_>
          5 1 9 1 2.</_></rects>
      <tilted>0</tilted></_>
    <_>
      <rects>
        <_>
          5 6 9 2 -1.</_>
        <_>
          8 6 3 2 3.</_></rects>
      <tilted>0</tilted></_>
    <_>
      <rects>
        <_>
          5 8 9 2 -1.</_>
        <_>
          8 8 3 2 3.</_></rects>
      <tilted>0</tilted></_>
    <_>
      <rects>
        <_>
          6 3 12 3 -1.</_>
        <_>
          10 3 4 3 3.</_></rects>
      <tilted>0</tilted></_>
    <_>
      <rects>
        <_>
          6 6 10 8 -1.</_>
        <_>
          6 10 10 4 2.</_></rects>
      <tilted>0</tilted></_>
    <_>
      <rects>
        <_>
          6 7 6 2 -1.</_>
        <_>
          9 7 3 2 2.</_></rects>
      <tilted>0</tilted></_>
    <_>
      <rects>
        <_>
          6 12 9 2 -1.</_>
        <_>
          9 12 3 2 3.</_></rects>
      <tilted>0</tilted></_>
    <_>
      <rects>
        <_>
          7 0 6 3 -1.</_>
        <_>
          7 1 6 1 3.</_></rects>
      <tilted>0</tilted></_>
    <_>
      <rects>
        <_>
          7 3 8 8 -1.</_>
        <_>
          7 3 4 4 2.</_>
        <_>
          11 7 4 4 2.</_></rects>
      <tilted>0</tilted></_>
    <_>
      <rects>
        <_>
          7 6 4 6 -1.</_>
        <_>
          9 6 2 6 2.</_></rects>
      <tilted>0</tilted></_>
    <_>
      <rects>
        <_>
          7 6 6 6 -1.</_>
        <_>
          10 6 3 6 2.</_></rects>
      <tilted>0</tilted></_>
    <_>
      <rects>
        <_>
          7 6 6 7 -1.</_>
        <_>
          10 6 3 7 2.</_></rects>
      <tilted>0</tilted></_>
    <_>
      <rects>
        <_>
          7 8 6 3 -1.</_>
        <_>
          9 8 2 3 3.</_></rects>
      <tilted>0</tilted></_>
    <_>
      <rects>
        <_>
          9 8 7 6 -1.</_>
        <_>
          9 11 7 3 2.</_></rects>
      <tilted>0</tilted></_>
    <_>
      <rects>
        <_>
          10 8 1 6 -1.</_>
        <_>
          10 11 1 3 2.</_></rects>
      <tilted>0</tilted></_>
    <_>
      <rects>
        <_>
          11 6 9 7 -1.</_>
        <_>
          14 6 3 7 3.</_></rects>
      <tilted>0</tilted></_>
    <_>
      <rects>
        <_>
          12 8 4 5 -1.</_>
        <_>
          14 8 2 5 2.</_></rects>
      <tilted>0</tilted></_>
    <_>
      <rects>
        <_>
          13 0 3 12 -1.</_>
        <_>
          13 4 3 4 3.</_></rects>
      <tilted>0</tilted></_>
    <_>
      <rects>
        <_>
          13 1 3 9 -1.</_>
        <_>
          13 4 3 3 3.</_></rects>
      <tilted>0</tilted></_>
    <_>
      <rects>
        <_>
          14 1 6 19 -1.</_>
        <_>
          17 1 3 19 2.</_></rects>
      <tilted>0</tilted></_>
    <_>
      <rects>
        <_>
          14 4 6 8 -1.</_>
        <_>
          17 4 3 8 2.</_></rects>
      <tilted>0</tilted></_>
    <_>
      <rects>
        <_>
          14 7 2 4 -1.</_>
        <_>
          14 9 2 2 2.</_></rects>
      <tilted>0</tilted></_>
    <_>
      <rects>
        <_>
          16 4 4 13 -1.</_>
        <_>
          18 4 2 13 2.</_></rects>
      <tilted>0</tilted></_>
    <_>
      <rects>
        <_>
          16 9 2 3 -1.</_>
        <_>
          17 9 1 3 2.</_></rects>
      <tilted>0</tilted></_></features></cascade>
</opencv_storage>
